digraph Tree {
node [shape=box, style="filled, rounded", color="black", fontname="helvetica"] ;
edge [fontname="helvetica"] ;
0 [label="_TOTINDA <= 1.5\ngini = 0.303\nsamples = 44084\nvalue = [13019, 56784]\nclass = no poverty", fillcolor="#66b3eb"] ;
1 [label="ARTHDIS2 <= 1.429\ngini = 0.23\nsamples = 29588\nvalue = [6211, 40699]\nclass = no poverty", fillcolor="#57ace9"] ;
0 -> 1 [labeldistance=2.5, labelangle=45, headlabel="True"] ;
5 [label="DRNK3GE5 <= 82.5\ngini = 0.486\nsamples = 2507\nvalue = [1623, 2287]\nclass = no poverty", fillcolor="#c6e3f7"] ;
1 -> 5 ;
25 [label="USEEQUIP <= 1.5\ngini = 0.499\nsamples = 1798\nvalue = [1328, 1475]\nclass = no poverty", fillcolor="#ebf5fc"] ;
5 -> 25 ;
27 [label="ADDEPEV2 <= 1.5\ngini = 0.446\nsamples = 586\nvalue = [624, 316]\nclass = poverty", fillcolor="#f2c19d"] ;
25 -> 27 ;
73 [label="gini = 0.367\nsamples = 291\nvalue = [345, 110]\nclass = poverty", fillcolor="#eda978"] ;
27 -> 73 ;
74 [label="gini = 0.489\nsamples = 295\nvalue = [279, 206]\nclass = poverty", fillcolor="#f8decb"] ;
27 -> 74 ;
28 [label="QSTLANG <= 1.5\ngini = 0.47\nsamples = 1212\nvalue = [704, 1159]\nclass = no poverty", fillcolor="#b1d9f5"] ;
25 -> 28 ;
61 [label="_AGE65YR <= 1.5\ngini = 0.464\nsamples = 1177\nvalue = [662, 1148]\nclass = no poverty", fillcolor="#abd6f4"] ;
28 -> 61 ;
63 [label="_LMTSCL1 <= 1.5\ngini = 0.488\nsamples = 737\nvalue = [477, 656]\nclass = no poverty", fillcolor="#c9e4f8"] ;
61 -> 63 ;
65 [label="gini = 0.478\nsamples = 243\nvalue = [226, 148]\nclass = poverty", fillcolor="#f6d4bb"] ;
63 -> 65 ;
66 [label="gini = 0.443\nsamples = 494\nvalue = [251, 508]\nclass = no poverty", fillcolor="#9bcdf2"] ;
63 -> 66 ;
64 [label="gini = 0.397\nsamples = 440\nvalue = [185, 492]\nclass = no poverty", fillcolor="#83c2ef"] ;
61 -> 64 ;
62 [label="gini = 0.329\nsamples = 35\nvalue = [42, 11]\nclass = poverty", fillcolor="#eca26d"] ;
28 -> 62 ;
26 [label="DIFFALON <= 1.5\ngini = 0.391\nsamples = 709\nvalue = [295, 812]\nclass = no poverty", fillcolor="#81c1ee"] ;
5 -> 26 ;
31 [label="gini = 0.474\nsamples = 90\nvalue = [78, 49]\nclass = poverty", fillcolor="#f5d0b5"] ;
26 -> 31 ;
32 [label="gini = 0.345\nsamples = 619\nvalue = [217, 763]\nclass = no poverty", fillcolor="#71b9ec"] ;
26 -> 32 ;
6 [label="CVDINFR4 <= 1.5\ngini = 0.191\nsamples = 27081\nvalue = [4588, 38412]\nclass = no poverty", fillcolor="#51a9e8"] ;
1 -> 6 ;
7 [label="ADDEPEV2 <= 1.5\ngini = 0.456\nsamples = 1127\nvalue = [620, 1143]\nclass = no poverty", fillcolor="#a4d2f3"] ;
6 -> 7 ;
33 [label="gini = 0.496\nsamples = 214\nvalue = [186, 155]\nclass = poverty", fillcolor="#fbeade"] ;
7 -> 33 ;
34 [label="USEEQUIP <= 1.5\ngini = 0.424\nsamples = 913\nvalue = [434, 988]\nclass = no poverty", fillcolor="#90c8f0"] ;
7 -> 34 ;
35 [label="gini = 0.487\nsamples = 167\nvalue = [149, 107]\nclass = poverty", fillcolor="#f8dbc7"] ;
34 -> 35 ;
36 [label="gini = 0.369\nsamples = 746\nvalue = [285, 881]\nclass = no poverty", fillcolor="#79bded"] ;
34 -> 36 ;
8 [label="DOCTDIAB <= 13.0\ngini = 0.174\nsamples = 25954\nvalue = [3968, 37269]\nclass = no poverty", fillcolor="#4ea7e8"] ;
6 -> 8 ;
17 [label="RENTHOM1 <= 1.5\ngini = 0.375\nsamples = 1049\nvalue = [414, 1242]\nclass = no poverty", fillcolor="#7bbeee"] ;
8 -> 17 ;
67 [label="DIFFWALK <= 1.5\ngini = 0.333\nsamples = 812\nvalue = [274, 1022]\nclass = no poverty", fillcolor="#6eb7ec"] ;
17 -> 67 ;
69 [label="gini = 0.479\nsamples = 130\nvalue = [86, 130]\nclass = no poverty", fillcolor="#bcdef6"] ;
67 -> 69 ;
70 [label="gini = 0.288\nsamples = 682\nvalue = [188, 892]\nclass = no poverty", fillcolor="#63b2ea"] ;
67 -> 70 ;
68 [label="gini = 0.475\nsamples = 237\nvalue = [140, 220]\nclass = no poverty", fillcolor="#b7dbf6"] ;
17 -> 68 ;
18 [label="DIFFWALK <= 1.5\ngini = 0.163\nsamples = 24905\nvalue = [3554, 36027]\nclass = no poverty", fillcolor="#4da7e8"] ;
8 -> 18 ;
19 [label="AVEDRNK2 <= 3.23\ngini = 0.481\nsamples = 1788\nvalue = [1146, 1701]\nclass = no poverty", fillcolor="#bedff7"] ;
18 -> 19 ;
59 [label="gini = 0.435\nsamples = 606\nvalue = [306, 651]\nclass = no poverty", fillcolor="#96cbf1"] ;
19 -> 59 ;
60 [label="gini = 0.494\nsamples = 1182\nvalue = [840, 1050]\nclass = no poverty", fillcolor="#d7ebfa"] ;
19 -> 60 ;
20 [label="_BMI5 <= 3542.5\ngini = 0.123\nsamples = 23117\nvalue = [2408, 34326]\nclass = no poverty", fillcolor="#47a4e7"] ;
18 -> 20 ;
29 [label="BPMEDS <= 1.088\ngini = 0.112\nsamples = 21672\nvalue = [2058, 32355]\nclass = no poverty", fillcolor="#46a3e7"] ;
20 -> 29 ;
39 [label="_RACEGR3 <= 1.5\ngini = 0.177\nsamples = 4968\nvalue = [779, 7146]\nclass = no poverty", fillcolor="#4fa8e8"] ;
29 -> 39 ;
41 [label="EDUCA <= 4.5\ngini = 0.15\nsamples = 4148\nvalue = [542, 6099]\nclass = no poverty", fillcolor="#4ba6e7"] ;
39 -> 41 ;
71 [label="(...)", fillcolor="#C0C0C0"] ;
41 -> 71 ;
72 [label="(...)", fillcolor="#C0C0C0"] ;
41 -> 72 ;
42 [label="INCOME2 <= 5.5\ngini = 0.301\nsamples = 820\nvalue = [237, 1047]\nclass = no poverty", fillcolor="#66b3eb"] ;
39 -> 42 ;
57 [label="(...)", fillcolor="#C0C0C0"] ;
42 -> 57 ;
58 [label="(...)", fillcolor="#C0C0C0"] ;
42 -> 58 ;
40 [label="DIABETE3 <= 1.5\ngini = 0.092\nsamples = 16704\nvalue = [1279, 25209]\nclass = no poverty", fillcolor="#43a2e6"] ;
29 -> 40 ;
51 [label="gini = 0.308\nsamples = 334\nvalue = [101, 431]\nclass = no poverty", fillcolor="#67b4eb"] ;
40 -> 51 ;
52 [label="gini = 0.087\nsamples = 16370\nvalue = [1178, 24778]\nclass = no poverty", fillcolor="#42a2e6"] ;
40 -> 52 ;
30 [label="CHCKIDNY <= 1.5\ngini = 0.256\nsamples = 1445\nvalue = [350, 1971]\nclass = no poverty", fillcolor="#5caeea"] ;
20 -> 30 ;
53 [label="gini = 0.498\nsamples = 42\nvalue = [38, 33]\nclass = poverty", fillcolor="#fceee5"] ;
30 -> 53 ;
54 [label="QLACTLM2 <= 1.5\ngini = 0.239\nsamples = 1403\nvalue = [312, 1938]\nclass = no poverty", fillcolor="#59ade9"] ;
30 -> 54 ;
55 [label="gini = 0.435\nsamples = 214\nvalue = [113, 241]\nclass = no poverty", fillcolor="#96cbf1"] ;
54 -> 55 ;
56 [label="gini = 0.188\nsamples = 1189\nvalue = [199, 1697]\nclass = no poverty", fillcolor="#50a8e8"] ;
54 -> 56 ;
2 [label="DIFFDRES <= 1.487\ngini = 0.418\nsamples = 14496\nvalue = [6808, 16085]\nclass = no poverty", fillcolor="#8dc6f0"] ;
0 -> 2 [labeldistance=2.5, labelangle=-45, headlabel="False"] ;
3 [label="gini = 0.335\nsamples = 1108\nvalue = [1377, 373]\nclass = poverty", fillcolor="#eca36f"] ;
2 -> 3 ;
4 [label="MEDCOST <= 1.5\ngini = 0.382\nsamples = 13388\nvalue = [5431, 15712]\nclass = no poverty", fillcolor="#7dbfee"] ;
2 -> 4 ;
9 [label="LMTJOIN3 <= 1.29\ngini = 0.488\nsamples = 1496\nvalue = [982, 1335]\nclass = no poverty", fillcolor="#cbe5f8"] ;
4 -> 9 ;
15 [label="gini = 0.428\nsamples = 305\nvalue = [327, 147]\nclass = poverty", fillcolor="#f1ba92"] ;
9 -> 15 ;
16 [label="QLACTLM2 <= 1.398\ngini = 0.458\nsamples = 1191\nvalue = [655, 1188]\nclass = no poverty", fillcolor="#a6d3f3"] ;
9 -> 16 ;
21 [label="gini = 0.476\nsamples = 280\nvalue = [266, 171]\nclass = poverty", fillcolor="#f6d2b8"] ;
16 -> 21 ;
22 [label="gini = 0.4\nsamples = 911\nvalue = [389, 1017]\nclass = no poverty", fillcolor="#85c2ef"] ;
16 -> 22 ;
10 [label="BPMEDS <= 1.088\ngini = 0.361\nsamples = 11892\nvalue = [4449, 14377]\nclass = no poverty", fillcolor="#76bbed"] ;
4 -> 10 ;
11 [label="DIABAGE2 <= 52.5\ngini = 0.458\nsamples = 4725\nvalue = [2650, 4812]\nclass = no poverty", fillcolor="#a6d3f3"] ;
10 -> 11 ;
23 [label="gini = 0.498\nsamples = 604\nvalue = [521, 456]\nclass = poverty", fillcolor="#fcefe6"] ;
11 -> 23 ;
24 [label="_STATE <= 69.0\ngini = 0.441\nsamples = 4121\nvalue = [2129, 4356]\nclass = no poverty", fillcolor="#9acdf2"] ;
11 -> 24 ;
43 [label="ARTHSOCL <= 1.5\ngini = 0.437\nsamples = 4045\nvalue = [2049, 4306]\nclass = no poverty", fillcolor="#97ccf1"] ;
24 -> 43 ;
45 [label="gini = 0.452\nsamples = 369\nvalue = [392, 207]\nclass = poverty", fillcolor="#f3c4a2"] ;
43 -> 45 ;
46 [label="CVDCRHD4 <= 1.5\ngini = 0.41\nsamples = 3676\nvalue = [1657, 4099]\nclass = no poverty", fillcolor="#89c5f0"] ;
43 -> 46 ;
47 [label="EMPLOY1 <= 7.5\ngini = 0.499\nsamples = 405\nvalue = [321, 295]\nclass = poverty", fillcolor="#fdf5ef"] ;
46 -> 47 ;
49 [label="(...)", fillcolor="#C0C0C0"] ;
47 -> 49 ;
50 [label="(...)", fillcolor="#C0C0C0"] ;
47 -> 50 ;
48 [label="SCNTLWK1 <= 46.069\ngini = 0.385\nsamples = 3271\nvalue = [1336, 3804]\nclass = no poverty", fillcolor="#7fbfee"] ;
46 -> 48 ;
75 [label="(...)", fillcolor="#C0C0C0"] ;
48 -> 75 ;
76 [label="(...)", fillcolor="#C0C0C0"] ;
48 -> 76 ;
44 [label="gini = 0.473\nsamples = 76\nvalue = [80, 50]\nclass = poverty", fillcolor="#f5d0b5"] ;
24 -> 44 ;
12 [label="_DRDXAR1 <= 1.831\ngini = 0.266\nsamples = 7167\nvalue = [1799, 9565]\nclass = no poverty", fillcolor="#5eafea"] ;
10 -> 12 ;
13 [label="ARTHDIS2 <= 1.429\ngini = 0.413\nsamples = 1827\nvalue = [824, 2004]\nclass = no poverty", fillcolor="#8ac5f0"] ;
12 -> 13 ;
37 [label="gini = 0.491\nsamples = 404\nvalue = [264, 348]\nclass = no poverty", fillcolor="#cfe7f9"] ;
13 -> 37 ;
38 [label="gini = 0.378\nsamples = 1423\nvalue = [560, 1656]\nclass = no poverty", fillcolor="#7cbeee"] ;
13 -> 38 ;
14 [label="gini = 0.202\nsamples = 5340\nvalue = [975, 7561]\nclass = no poverty", fillcolor="#53aae8"] ;
12 -> 14 ;
}